digraph Tree {
node [shape=box, style="rounded", color="black", fontname=helvetica] ;
edge [fontname=helvetica] ;
0 [label="Fare <= 10.8\ngini = 0.5\nsamples = 420\nvalue = [402, 266]"] ;
1 [label="Class_upper <= 0.5\ngini = 0.4\nsamples = 179\nvalue = [222, 70]"] ;
0 -> 1 [labeldistance=2.5, labelangle=45, headlabel="True"] ;
2 [label="Mr <= 0.5\ngini = 0.4\nsamples = 175\nvalue = [216, 70]"] ;
1 -> 2 ;
3 [label="SibSp <= 0.5\ngini = 0.5\nsamples = 47\nvalue = [32, 44]"] ;
2 -> 3 ;
4 [label="Embarked_C <= 0.5\ngini = 0.5\nsamples = 44\nvalue = [28, 44]"] ;
3 -> 4 ;
5 [label="Parch <= 1.5\ngini = 0.5\nsamples = 41\nvalue = [28, 39]"] ;
4 -> 5 ;
6 [label="Embarked_Q <= 0.5\ngini = 0.5\nsamples = 40\nvalue = [26, 39]"] ;
5 -> 6 ;
7 [label="Age_is_null <= 0.5\ngini = 0.5\nsamples = 25\nvalue = [21, 19]"] ;
6 -> 7 ;
8 [label="Mrs <= 0.5\ngini = 0.5\nsamples = 23\nvalue = [19, 19]"] ;
7 -> 8 ;
9 [label="Fare <= 7.7\ngini = 0.5\nsamples = 21\nvalue = [19, 16]"] ;
8 -> 9 ;
10 [label="gini = 0.0\nsamples = 4\nvalue = [0, 6]"] ;
9 -> 10 ;
11 [label="Class_lower <= 0.5\ngini = 0.5\nsamples = 17\nvalue = [19, 10]"] ;
9 -> 11 ;
12 [label="gini = 0.0\nsamples = 3\nvalue = [0, 4]"] ;
11 -> 12 ;
13 [label="Age <= 25.5\ngini = 0.4\nsamples = 14\nvalue = [19, 6]"] ;
11 -> 13 ;
14 [label="Parch <= 0.5\ngini = 0.3\nsamples = 10\nvalue = [15, 3]"] ;
13 -> 14 ;
15 [label="Age <= 19.0\ngini = 0.3\nsamples = 9\nvalue = [13, 3]"] ;
14 -> 15 ;
16 [label="Fare <= 8.8\ngini = 0.4\nsamples = 2\nvalue = [1, 2]"] ;
15 -> 16 ;
17 [label="gini = 0.0\nsamples = 1\nvalue = [1, 0]"] ;
16 -> 17 ;
18 [label="gini = 0.0\nsamples = 1\nvalue = [0, 2]"] ;
16 -> 18 ;
19 [label="Age <= 22.5\ngini = 0.1\nsamples = 7\nvalue = [12, 1]"] ;
15 -> 19 ;
20 [label="Age <= 21.0\ngini = 0.2\nsamples = 4\nvalue = [6, 1]"] ;
19 -> 20 ;
21 [label="gini = 0.0\nsamples = 1\nvalue = [3, 0]"] ;
20 -> 21 ;
22 [label="Fare <= 8.8\ngini = 0.4\nsamples = 3\nvalue = [3, 1]"] ;
20 -> 22 ;
23 [label="gini = 0.0\nsamples = 1\nvalue = [0, 1]"] ;
22 -> 23 ;
24 [label="gini = 0.0\nsamples = 2\nvalue = [3, 0]"] ;
22 -> 24 ;
25 [label="gini = 0.0\nsamples = 3\nvalue = [6, 0]"] ;
19 -> 25 ;
26 [label="gini = 0.0\nsamples = 1\nvalue = [2, 0]"] ;
14 -> 26 ;
27 [label="Fare <= 7.8\ngini = 0.5\nsamples = 4\nvalue = [4, 3]"] ;
13 -> 27 ;
28 [label="gini = 0.0\nsamples = 1\nvalue = [3, 0]"] ;
27 -> 28 ;
29 [label="Fare <= 7.9\ngini = 0.4\nsamples = 3\nvalue = [1, 3]"] ;
27 -> 29 ;
30 [label="Age <= 27.0\ngini = 0.5\nsamples = 2\nvalue = [1, 1]"] ;
29 -> 30 ;
31 [label="gini = 0.0\nsamples = 1\nvalue = [0, 1]"] ;
30 -> 31 ;
32 [label="gini = 0.0\nsamples = 1\nvalue = [1, 0]"] ;
30 -> 32 ;
33 [label="gini = 0.0\nsamples = 1\nvalue = [0, 2]"] ;
29 -> 33 ;
34 [label="gini = 0.0\nsamples = 2\nvalue = [0, 3]"] ;
8 -> 34 ;
35 [label="gini = 0.0\nsamples = 2\nvalue = [2, 0]"] ;
7 -> 35 ;
36 [label="Fare <= 7.7\ngini = 0.3\nsamples = 15\nvalue = [5, 20]"] ;
6 -> 36 ;
37 [label="gini = 0.0\nsamples = 1\nvalue = [1, 0]"] ;
36 -> 37 ;
38 [label="Age_is_null <= 0.5\ngini = 0.3\nsamples = 14\nvalue = [4, 20]"] ;
36 -> 38 ;
39 [label="gini = 0.0\nsamples = 3\nvalue = [0, 5]"] ;
38 -> 39 ;
40 [label="Fare <= 8.0\ngini = 0.3\nsamples = 11\nvalue = [4, 15]"] ;
38 -> 40 ;
41 [label="Fare <= 7.7\ngini = 0.3\nsamples = 10\nvalue = [3, 15]"] ;
40 -> 41 ;
42 [label="gini = 0.0\nsamples = 2\nvalue = [0, 4]"] ;
41 -> 42 ;
43 [label="Fare <= 7.8\ngini = 0.3\nsamples = 8\nvalue = [3, 11]"] ;
41 -> 43 ;
44 [label="gini = 0.4\nsamples = 6\nvalue = [3, 8]"] ;
43 -> 44 ;
45 [label="gini = 0.0\nsamples = 2\nvalue = [0, 3]"] ;
43 -> 45 ;
46 [label="gini = 0.0\nsamples = 1\nvalue = [1, 0]"] ;
40 -> 46 ;
47 [label="gini = 0.0\nsamples = 1\nvalue = [2, 0]"] ;
5 -> 47 ;
48 [label="gini = 0.0\nsamples = 3\nvalue = [0, 5]"] ;
4 -> 48 ;
49 [label="gini = 0.0\nsamples = 3\nvalue = [4, 0]"] ;
3 -> 49 ;
50 [label="Deck_f <= 0.5\ngini = 0.2\nsamples = 128\nvalue = [184, 26]"] ;
2 -> 50 ;
51 [label="Parch <= 0.5\ngini = 0.2\nsamples = 126\nvalue = [180, 26]"] ;
50 -> 51 ;
52 [label="Age <= 26.5\ngini = 0.2\nsamples = 125\nvalue = [178, 26]"] ;
51 -> 52 ;
53 [label="Embarked_C <= 0.5\ngini = 0.1\nsamples = 48\nvalue = [68, 4]"] ;
52 -> 53 ;
54 [label="Fare <= 8.2\ngini = 0.1\nsamples = 46\nvalue = [66, 4]"] ;
53 -> 54 ;
55 [label="SibSp <= 0.5\ngini = 0.1\nsamples = 34\nvalue = [50, 4]"] ;
54 -> 55 ;
56 [label="Age <= 24.5\ngini = 0.1\nsamples = 32\nvalue = [49, 3]"] ;
55 -> 56 ;
57 [label="Fare <= 7.2\ngini = 0.1\nsamples = 25\nvalue = [39, 3]"] ;
56 -> 57 ;
58 [label="Fare <= 7.1\ngini = 0.2\nsamples = 5\nvalue = [6, 1]"] ;
57 -> 58 ;
59 [label="gini = 0.0\nsamples = 4\nvalue = [6, 0]"] ;
58 -> 59 ;
60 [label="gini = 0.0\nsamples = 1\nvalue = [0, 1]"] ;
58 -> 60 ;
61 [label="Age <= 21.5\ngini = 0.1\nsamples = 20\nvalue = [33, 2]"] ;
57 -> 61 ;
62 [label="Fare <= 7.8\ngini = 0.1\nsamples = 14\nvalue = [24, 2]"] ;
61 -> 62 ;
63 [label="gini = 0.0\nsamples = 4\nvalue = [9, 0]"] ;
62 -> 63 ;
64 [label="Age <= 19.5\ngini = 0.2\nsamples = 10\nvalue = [15, 2]"] ;
62 -> 64 ;
65 [label="Age <= 17.5\ngini = 0.4\nsamples = 3\nvalue = [2, 1]"] ;
64 -> 65 ;
66 [label="gini = 0.0\nsamples = 1\nvalue = [1, 0]"] ;
65 -> 66 ;
67 [label="Fare <= 8.0\ngini = 0.5\nsamples = 2\nvalue = [1, 1]"] ;
65 -> 67 ;
68 [label="gini = 0.0\nsamples = 1\nvalue = [1, 0]"] ;
67 -> 68 ;
69 [label="gini = 0.0\nsamples = 1\nvalue = [0, 1]"] ;
67 -> 69 ;
70 [label="Age <= 20.5\ngini = 0.1\nsamples = 7\nvalue = [13, 1]"] ;
64 -> 70 ;
71 [label="gini = 0.0\nsamples = 2\nvalue = [2, 0]"] ;
70 -> 71 ;
72 [label="Fare <= 7.8\ngini = 0.2\nsamples = 5\nvalue = [11, 1]"] ;
70 -> 72 ;
73 [label="gini = 0.0\nsamples = 1\nvalue = [0, 1]"] ;
72 -> 73 ;
74 [label="gini = 0.0\nsamples = 4\nvalue = [11, 0]"] ;
72 -> 74 ;
75 [label="gini = 0.0\nsamples = 6\nvalue = [9, 0]"] ;
61 -> 75 ;
76 [label="gini = 0.0\nsamples = 7\nvalue = [10, 0]"] ;
56 -> 76 ;
77 [label="Age <= 21.0\ngini = 0.5\nsamples = 2\nvalue = [1, 1]"] ;
55 -> 77 ;
78 [label="gini = 0.0\nsamples = 1\nvalue = [0, 1]"] ;
77 -> 78 ;
79 [label="gini = 0.0\nsamples = 1\nvalue = [1, 0]"] ;
77 -> 79 ;
80 [label="gini = 0.0\nsamples = 12\nvalue = [16, 0]"] ;
54 -> 80 ;
81 [label="gini = 0.0\nsamples = 2\nvalue = [2, 0]"] ;
53 -> 81 ;
82 [label="Embarked_C <= 0.5\ngini = 0.3\nsamples = 77\nvalue = [110, 22]"] ;
52 -> 82 ;
83 [label="Age <= 27.5\ngini = 0.2\nsamples = 67\nvalue = [97, 16]"] ;
82 -> 83 ;
84 [label="gini = 0.0\nsamples = 2\nvalue = [0, 5]"] ;
83 -> 84 ;
85 [label="Age <= 60.5\ngini = 0.2\nsamples = 65\nvalue = [97, 11]"] ;
83 -> 85 ;
86 [label="Embarked_S <= 0.5\ngini = 0.2\nsamples = 62\nvalue = [93, 9]"] ;
85 -> 86 ;
87 [label="gini = 0.0\nsamples = 9\nvalue = [15, 0]"] ;
86 -> 87 ;
88 [label="Class_middle <= 0.5\ngini = 0.2\nsamples = 53\nvalue = [78, 9]"] ;
86 -> 88 ;
89 [label="Fare <= 8.0\ngini = 0.2\nsamples = 46\nvalue = [66, 9]"] ;
88 -> 89 ;
90 [label="Age <= 32.5\ngini = 0.3\nsamples = 29\nvalue = [37, 8]"] ;
89 -> 90 ;
91 [label="Age <= 30.3\ngini = 0.4\nsamples = 14\nvalue = [14, 7]"] ;
90 -> 91 ;
92 [label="Age_is_null <= 0.5\ngini = 0.3\nsamples = 9\nvalue = [12, 3]"] ;
91 -> 92 ;
93 [label="gini = 0.0\nsamples = 2\nvalue = [3, 0]"] ;
92 -> 93 ;
94 [label="Fare <= 7.8\ngini = 0.4\nsamples = 7\nvalue = [9, 3]"] ;
92 -> 94 ;
95 [label="Fare <= 7.5\ngini = 0.5\nsamples = 3\nvalue = [3, 3]"] ;
94 -> 95 ;
96 [label="gini = 0.0\nsamples = 2\nvalue = [3, 0]"] ;
95 -> 96 ;
97 [label="gini = 0.0\nsamples = 1\nvalue = [0, 3]"] ;
95 -> 97 ;
98 [label="gini = 0.0\nsamples = 4\nvalue = [6, 0]"] ;
94 -> 98 ;
99 [label="Age <= 31.5\ngini = 0.4\nsamples = 5\nvalue = [2, 4]"] ;
91 -> 99 ;
100 [label="Fare <= 7.9\ngini = 0.4\nsamples = 2\nvalue = [1, 2]"] ;
99 -> 100 ;
101 [label="gini = 0.0\nsamples = 1\nvalue = [1, 0]"] ;
100 -> 101 ;
102 [label="gini = 0.0\nsamples = 1\nvalue = [0, 2]"] ;
100 -> 102 ;
103 [label="Fare <= 7.9\ngini = 0.4\nsamples = 3\nvalue = [1, 2]"] ;
99 -> 103 ;
104 [label="gini = 0.0\nsamples = 1\nvalue = [0, 1]"] ;
103 -> 104 ;
105 [label="Fare <= 7.9\ngini = 0.5\nsamples = 2\nvalue = [1, 1]"] ;
103 -> 105 ;
106 [label="gini = 0.0\nsamples = 1\nvalue = [1, 0]"] ;
105 -> 106 ;
107 [label="gini = 0.0\nsamples = 1\nvalue = [0, 1]"] ;
105 -> 107 ;
108 [label="Age <= 42.0\ngini = 0.1\nsamples = 15\nvalue = [23, 1]"] ;
90 -> 108 ;
109 [label="gini = 0.0\nsamples = 9\nvalue = [13, 0]"] ;
108 -> 109 ;
110 [label="Age <= 45.5\ngini = 0.2\nsamples = 6\nvalue = [10, 1]"] ;
108 -> 110 ;
111 [label="gini = 0.0\nsamples = 1\nvalue = [0, 1]"] ;
110 -> 111 ;
112 [label="gini = 0.0\nsamples = 5\nvalue = [10, 0]"] ;
110 -> 112 ;
113 [label="Age <= 30.8\ngini = 0.1\nsamples = 17\nvalue = [29, 1]"] ;
89 -> 113 ;
114 [label="Age <= 29.3\ngini = 0.1\nsamples = 9\nvalue = [16, 1]"] ;
113 -> 114 ;
115 [label="gini = 0.0\nsamples = 1\nvalue = [2, 0]"] ;
114 -> 115 ;
116 [label="Fare <= 8.1\ngini = 0.1\nsamples = 8\nvalue = [14, 1]"] ;
114 -> 116 ;
117 [label="gini = 0.0\nsamples = 7\nvalue = [14, 0]"] ;
116 -> 117 ;
118 [label="gini = 0.0\nsamples = 1\nvalue = [0, 1]"] ;
116 -> 118 ;
119 [label="gini = 0.0\nsamples = 8\nvalue = [13, 0]"] ;
113 -> 119 ;
120 [label="gini = 0.0\nsamples = 7\nvalue = [12, 0]"] ;
88 -> 120 ;
121 [label="Fare <= 9.1\ngini = 0.4\nsamples = 3\nvalue = [4, 2]"] ;
85 -> 121 ;
122 [label="gini = 0.0\nsamples = 1\nvalue = [1, 0]"] ;
121 -> 122 ;
123 [label="Age <= 66.0\ngini = 0.5\nsamples = 2\nvalue = [3, 2]"] ;
121 -> 123 ;
124 [label="gini = 0.0\nsamples = 1\nvalue = [0, 2]"] ;
123 -> 124 ;
125 [label="gini = 0.0\nsamples = 1\nvalue = [3, 0]"] ;
123 -> 125 ;
126 [label="Age <= 29.3\ngini = 0.4\nsamples = 10\nvalue = [13, 6]"] ;
82 -> 126 ;
127 [label="gini = 0.0\nsamples = 1\nvalue = [0, 2]"] ;
126 -> 127 ;
128 [label="Age <= 29.8\ngini = 0.4\nsamples = 9\nvalue = [13, 4]"] ;
126 -> 128 ;
129 [label="Fare <= 7.2\ngini = 0.4\nsamples = 5\nvalue = [8, 4]"] ;
128 -> 129 ;
130 [label="gini = 0.0\nsamples = 3\nvalue = [6, 0]"] ;
129 -> 130 ;
131 [label="gini = 0.4\nsamples = 2\nvalue = [2, 4]"] ;
129 -> 131 ;
132 [label="gini = 0.0\nsamples = 4\nvalue = [5, 0]"] ;
128 -> 132 ;
133 [label="gini = 0.0\nsamples = 1\nvalue = [2, 0]"] ;
51 -> 133 ;
134 [label="gini = 0.0\nsamples = 2\nvalue = [4, 0]"] ;
50 -> 134 ;
135 [label="gini = 0.0\nsamples = 4\nvalue = [6, 0]"] ;
1 -> 135 ;
136 [label="Class_lower <= 0.5\ngini = 0.5\nsamples = 241\nvalue = [180, 196]"] ;
0 -> 136 [labeldistance=2.5, labelangle=-45, headlabel="False"] ;
137 [label="Is_male <= 0.5\ngini = 0.5\nsamples = 158\nvalue = [103, 147]"] ;
136 -> 137 ;
138 [label="Fare <= 149.0\ngini = 0.0\nsamples = 69\nvalue = [2, 101]"] ;
137 -> 138 ;
139 [label="gini = 0.0\nsamples = 58\nvalue = [0, 91]"] ;
138 -> 139 ;
140 [label="Deck_c <= 0.5\ngini = 0.3\nsamples = 11\nvalue = [2, 10]"] ;
138 -> 140 ;
141 [label="gini = 0.0\nsamples = 5\nvalue = [0, 5]"] ;
140 -> 141 ;
142 [label="Embarked_C <= 0.5\ngini = 0.4\nsamples = 6\nvalue = [2, 5]"] ;
140 -> 142 ;
143 [label="Parch <= 1.0\ngini = 0.4\nsamples = 5\nvalue = [2, 4]"] ;
142 -> 143 ;
144 [label="gini = 0.0\nsamples = 1\nvalue = [0, 2]"] ;
143 -> 144 ;
145 [label="Age <= 13.0\ngini = 0.5\nsamples = 4\nvalue = [2, 2]"] ;
143 -> 145 ;
146 [label="gini = 0.0\nsamples = 1\nvalue = [1, 0]"] ;
145 -> 146 ;
147 [label="SibSp <= 0.5\ngini = 0.4\nsamples = 3\nvalue = [1, 2]"] ;
145 -> 147 ;
148 [label="gini = 0.0\nsamples = 1\nvalue = [0, 1]"] ;
147 -> 148 ;
149 [label="SibSp <= 2.0\ngini = 0.5\nsamples = 2\nvalue = [1, 1]"] ;
147 -> 149 ;
150 [label="gini = 0.0\nsamples = 1\nvalue = [1, 0]"] ;
149 -> 150 ;
151 [label="gini = 0.0\nsamples = 1\nvalue = [0, 1]"] ;
149 -> 151 ;
152 [label="gini = 0.0\nsamples = 1\nvalue = [0, 1]"] ;
142 -> 152 ;
153 [label="Class_middle <= 0.5\ngini = 0.4\nsamples = 89\nvalue = [101, 46]"] ;
137 -> 153 ;
154 [label="Master <= 0.5\ngini = 0.5\nsamples = 47\nvalue = [50, 28]"] ;
153 -> 154 ;
155 [label="Deck_e <= 0.5\ngini = 0.4\nsamples = 45\nvalue = [50, 25]"] ;
154 -> 155 ;
156 [label="SibSp <= 1.5\ngini = 0.4\nsamples = 38\nvalue = [47, 19]"] ;
155 -> 156 ;
157 [label="Age <= 75.0\ngini = 0.4\nsamples = 36\nvalue = [46, 17]"] ;
156 -> 157 ;
158 [label="Deck_a <= 0.5\ngini = 0.4\nsamples = 35\nvalue = [46, 15]"] ;
157 -> 158 ;
159 [label="Deck_c <= 0.5\ngini = 0.4\nsamples = 31\nvalue = [37, 15]"] ;
158 -> 159 ;
160 [label="Age <= 39.5\ngini = 0.4\nsamples = 18\nvalue = [19, 9]"] ;
159 -> 160 ;
161 [label="Embarked_S <= 0.5\ngini = 0.5\nsamples = 12\nvalue = [9, 7]"] ;
160 -> 161 ;
162 [label="Mr <= 0.5\ngini = 0.5\nsamples = 5\nvalue = [4, 3]"] ;
161 -> 162 ;
163 [label="Age_is_null <= 0.5\ngini = 0.5\nsamples = 2\nvalue = [1, 1]"] ;
162 -> 163 ;
164 [label="gini = 0.0\nsamples = 1\nvalue = [0, 1]"] ;
163 -> 164 ;
165 [label="gini = 0.0\nsamples = 1\nvalue = [1, 0]"] ;
163 -> 165 ;
166 [label="Deck_d <= 0.5\ngini = 0.5\nsamples = 3\nvalue = [3, 2]"] ;
162 -> 166 ;
167 [label="Fare <= 324.0\ngini = 0.4\nsamples = 2\nvalue = [3, 1]"] ;
166 -> 167 ;
168 [label="gini = 0.0\nsamples = 1\nvalue = [3, 0]"] ;
167 -> 168 ;
169 [label="gini = 0.0\nsamples = 1\nvalue = [0, 1]"] ;
167 -> 169 ;
170 [label="gini = 0.0\nsamples = 1\nvalue = [0, 1]"] ;
166 -> 170 ;
171 [label="Deck_b <= 0.5\ngini = 0.5\nsamples = 7\nvalue = [5, 4]"] ;
161 -> 171 ;
172 [label="Parch <= 0.5\ngini = 0.5\nsamples = 5\nvalue = [3, 3]"] ;
171 -> 172 ;
173 [label="Age <= 27.5\ngini = 0.4\nsamples = 4\nvalue = [3, 1]"] ;
172 -> 173 ;
174 [label="Deck_d <= 0.5\ngini = 0.5\nsamples = 2\nvalue = [1, 1]"] ;
173 -> 174 ;
175 [label="gini = 0.0\nsamples = 1\nvalue = [0, 1]"] ;
174 -> 175 ;
176 [label="gini = 0.0\nsamples = 1\nvalue = [1, 0]"] ;
174 -> 176 ;
177 [label="gini = 0.0\nsamples = 2\nvalue = [2, 0]"] ;
173 -> 177 ;
178 [label="gini = 0.0\nsamples = 1\nvalue = [0, 2]"] ;
172 -> 178 ;
179 [label="Fare <= 54.5\ngini = 0.4\nsamples = 2\nvalue = [2, 1]"] ;
171 -> 179 ;
180 [label="gini = 0.0\nsamples = 1\nvalue = [2, 0]"] ;
179 -> 180 ;
181 [label="gini = 0.0\nsamples = 1\nvalue = [0, 1]"] ;
179 -> 181 ;
182 [label="Embarked_C <= 0.5\ngini = 0.3\nsamples = 6\nvalue = [10, 2]"] ;
160 -> 182 ;
183 [label="Deck_b <= 0.5\ngini = 0.2\nsamples = 4\nvalue = [9, 1]"] ;
182 -> 183 ;
184 [label="Age <= 50.5\ngini = 0.2\nsamples = 3\nvalue = [7, 1]"] ;
183 -> 184 ;
185 [label="Age <= 43.5\ngini = 0.4\nsamples = 2\nvalue = [3, 1]"] ;
184 -> 185 ;
186 [label="gini = 0.0\nsamples = 1\nvalue = [3, 0]"] ;
185 -> 186 ;
187 [label="gini = 0.0\nsamples = 1\nvalue = [0, 1]"] ;
185 -> 187 ;
188 [label="gini = 0.0\nsamples = 1\nvalue = [4, 0]"] ;
184 -> 188 ;
189 [label="gini = 0.0\nsamples = 1\nvalue = [2, 0]"] ;
183 -> 189 ;
190 [label="Fare <= 54.4\ngini = 0.5\nsamples = 2\nvalue = [1, 1]"] ;
182 -> 190 ;
191 [label="gini = 0.0\nsamples = 1\nvalue = [1, 0]"] ;
190 -> 191 ;
192 [label="gini = 0.0\nsamples = 1\nvalue = [0, 1]"] ;
190 -> 192 ;
193 [label="Embarked_C <= 0.5\ngini = 0.4\nsamples = 13\nvalue = [18, 6]"] ;
159 -> 193 ;
194 [label="Fare <= 86.7\ngini = 0.1\nsamples = 9\nvalue = [16, 1]"] ;
193 -> 194 ;
195 [label="gini = 0.0\nsamples = 6\nvalue = [11, 0]"] ;
194 -> 195 ;
196 [label="Parch <= 0.5\ngini = 0.3\nsamples = 3\nvalue = [5, 1]"] ;
194 -> 196 ;
197 [label="gini = 0.0\nsamples = 1\nvalue = [0, 1]"] ;
196 -> 197 ;
198 [label="gini = 0.0\nsamples = 2\nvalue = [5, 0]"] ;
196 -> 198 ;
199 [label="Age_is_null <= 0.5\ngini = 0.4\nsamples = 4\nvalue = [2, 5]"] ;
193 -> 199 ;
200 [label="SibSp <= 0.5\ngini = 0.4\nsamples = 3\nvalue = [2, 1]"] ;
199 -> 200 ;
201 [label="gini = 0.0\nsamples = 2\nvalue = [2, 0]"] ;
200 -> 201 ;
202 [label="gini = 0.0\nsamples = 1\nvalue = [0, 1]"] ;
200 -> 202 ;
203 [label="gini = 0.0\nsamples = 1\nvalue = [0, 4]"] ;
199 -> 203 ;
204 [label="gini = 0.0\nsamples = 4\nvalue = [9, 0]"] ;
158 -> 204 ;
205 [label="gini = 0.0\nsamples = 1\nvalue = [0, 2]"] ;
157 -> 205 ;
206 [label="Fare <= 111.8\ngini = 0.4\nsamples = 2\nvalue = [1, 2]"] ;
156 -> 206 ;
207 [label="gini = 0.0\nsamples = 1\nvalue = [1, 0]"] ;
206 -> 207 ;
208 [label="gini = 0.0\nsamples = 1\nvalue = [0, 2]"] ;
206 -> 208 ;
209 [label="Age <= 49.0\ngini = 0.4\nsamples = 7\nvalue = [3, 6]"] ;
155 -> 209 ;
210 [label="Fare <= 25.9\ngini = 0.3\nsamples = 4\nvalue = [1, 5]"] ;
209 -> 210 ;
211 [label="gini = 0.0\nsamples = 1\nvalue = [1, 0]"] ;
210 -> 211 ;
212 [label="gini = 0.0\nsamples = 3\nvalue = [0, 5]"] ;
210 -> 212 ;
213 [label="Fare <= 39.2\ngini = 0.4\nsamples = 3\nvalue = [2, 1]"] ;
209 -> 213 ;
214 [label="gini = 0.0\nsamples = 1\nvalue = [0, 1]"] ;
213 -> 214 ;
215 [label="gini = 0.0\nsamples = 2\nvalue = [2, 0]"] ;
213 -> 215 ;
216 [label="gini = 0.0\nsamples = 2\nvalue = [0, 3]"] ;
154 -> 216 ;
217 [label="Age <= 13.0\ngini = 0.4\nsamples = 42\nvalue = [51, 18]"] ;
153 -> 217 ;
218 [label="gini = 0.0\nsamples = 8\nvalue = [0, 10]"] ;
217 -> 218 ;
219 [label="Fare <= 26.1\ngini = 0.2\nsamples = 34\nvalue = [51, 8]"] ;
217 -> 219 ;
220 [label="Fare <= 23.5\ngini = 0.3\nsamples = 25\nvalue = [37, 8]"] ;
219 -> 220 ;
221 [label="Age <= 29.3\ngini = 0.2\nsamples = 20\nvalue = [31, 5]"] ;
220 -> 221 ;
222 [label="gini = 0.0\nsamples = 10\nvalue = [18, 0]"] ;
221 -> 222 ;
223 [label="Fare <= 13.2\ngini = 0.4\nsamples = 10\nvalue = [13, 5]"] ;
221 -> 223 ;
224 [label="Age <= 31.8\ngini = 0.5\nsamples = 7\nvalue = [6, 5]"] ;
223 -> 224 ;
225 [label="gini = 0.0\nsamples = 1\nvalue = [0, 2]"] ;
224 -> 225 ;
226 [label="Age <= 46.0\ngini = 0.4\nsamples = 6\nvalue = [6, 3]"] ;
224 -> 226 ;
227 [label="Age <= 40.5\ngini = 0.5\nsamples = 4\nvalue = [4, 3]"] ;
226 -> 227 ;
228 [label="Deck_d <= 0.5\ngini = 0.3\nsamples = 3\nvalue = [4, 1]"] ;
227 -> 228 ;
229 [label="gini = 0.0\nsamples = 2\nvalue = [4, 0]"] ;
228 -> 229 ;
230 [label="gini = 0.0\nsamples = 1\nvalue = [0, 1]"] ;
228 -> 230 ;
231 [label="gini = 0.0\nsamples = 1\nvalue = [0, 2]"] ;
227 -> 231 ;
232 [label="gini = 0.0\nsamples = 2\nvalue = [2, 0]"] ;
226 -> 232 ;
233 [label="gini = 0.0\nsamples = 3\nvalue = [7, 0]"] ;
223 -> 233 ;
234 [label="Deck_f <= 0.5\ngini = 0.4\nsamples = 5\nvalue = [6, 3]"] ;
220 -> 234 ;
235 [label="Age <= 33.0\ngini = 0.5\nsamples = 4\nvalue = [4, 3]"] ;
234 -> 235 ;
236 [label="Age <= 28.5\ngini = 0.4\nsamples = 2\nvalue = [1, 3]"] ;
235 -> 236 ;
237 [label="gini = 0.0\nsamples = 1\nvalue = [1, 0]"] ;
236 -> 237 ;
238 [label="gini = 0.0\nsamples = 1\nvalue = [0, 3]"] ;
236 -> 238 ;
239 [label="gini = 0.0\nsamples = 2\nvalue = [3, 0]"] ;
235 -> 239 ;
240 [label="gini = 0.0\nsamples = 1\nvalue = [2, 0]"] ;
234 -> 240 ;
241 [label="gini = 0.0\nsamples = 9\nvalue = [14, 0]"] ;
219 -> 241 ;
242 [label="Mrs <= 0.5\ngini = 0.5\nsamples = 83\nvalue = [77, 49]"] ;
136 -> 242 ;
243 [label="Parch <= 1.5\ngini = 0.4\nsamples = 67\nvalue = [66, 30]"] ;
242 -> 243 ;
244 [label="Is_male <= 0.5\ngini = 0.4\nsamples = 49\nvalue = [48, 24]"] ;
243 -> 244 ;
245 [label="SibSp <= 2.5\ngini = 0.5\nsamples = 13\nvalue = [7, 12]"] ;
244 -> 245 ;
246 [label="Embarked_C <= 0.5\ngini = 0.4\nsamples = 11\nvalue = [5, 12]"] ;
245 -> 246 ;
247 [label="Fare <= 16.8\ngini = 0.2\nsamples = 5\nvalue = [1, 8]"] ;
246 -> 247 ;
248 [label="gini = 0.0\nsamples = 3\nvalue = [0, 6]"] ;
247 -> 248 ;
249 [label="Embarked_S <= 0.5\ngini = 0.4\nsamples = 2\nvalue = [1, 2]"] ;
247 -> 249 ;
250 [label="gini = 0.0\nsamples = 1\nvalue = [0, 2]"] ;
249 -> 250 ;
251 [label="gini = 0.0\nsamples = 1\nvalue = [1, 0]"] ;
249 -> 251 ;
252 [label="Age_is_null <= 0.5\ngini = 0.5\nsamples = 6\nvalue = [4, 4]"] ;
246 -> 252 ;
253 [label="SibSp <= 1.5\ngini = 0.4\nsamples = 5\nvalue = [2, 4]"] ;
252 -> 253 ;
254 [label="SibSp <= 0.5\ngini = 0.5\nsamples = 3\nvalue = [2, 2]"] ;
253 -> 254 ;
255 [label="Fare <= 13.9\ngini = 0.4\nsamples = 2\nvalue = [1, 2]"] ;
254 -> 255 ;
256 [label="gini = 0.0\nsamples = 1\nvalue = [0, 2]"] ;
255 -> 256 ;
257 [label="gini = 0.0\nsamples = 1\nvalue = [1, 0]"] ;
255 -> 257 ;
258 [label="gini = 0.0\nsamples = 1\nvalue = [1, 0]"] ;
254 -> 258 ;
259 [label="gini = 0.0\nsamples = 2\nvalue = [0, 2]"] ;
253 -> 259 ;
260 [label="gini = 0.0\nsamples = 1\nvalue = [2, 0]"] ;
252 -> 260 ;
261 [label="gini = 0.0\nsamples = 2\nvalue = [2, 0]"] ;
245 -> 261 ;
262 [label="Master <= 0.5\ngini = 0.4\nsamples = 36\nvalue = [41, 12]"] ;
244 -> 262 ;
263 [label="Fare <= 48.1\ngini = 0.3\nsamples = 28\nvalue = [34, 6]"] ;
262 -> 263 ;
264 [label="Age_is_null <= 0.5\ngini = 0.1\nsamples = 25\nvalue = [33, 2]"] ;
263 -> 264 ;
265 [label="SibSp <= 0.5\ngini = 0.1\nsamples = 17\nvalue = [25, 2]"] ;
264 -> 265 ;
266 [label="Embarked_S <= 0.5\ngini = 0.3\nsamples = 7\nvalue = [11, 2]"] ;
265 -> 266 ;
267 [label="Age <= 18.5\ngini = 0.4\nsamples = 2\nvalue = [1, 2]"] ;
266 -> 267 ;
268 [label="gini = 0.0\nsamples = 1\nvalue = [1, 0]"] ;
267 -> 268 ;
269 [label="gini = 0.0\nsamples = 1\nvalue = [0, 2]"] ;
267 -> 269 ;
270 [label="gini = 0.0\nsamples = 5\nvalue = [10, 0]"] ;
266 -> 270 ;
271 [label="gini = 0.0\nsamples = 10\nvalue = [14, 0]"] ;
265 -> 271 ;
272 [label="gini = 0.0\nsamples = 8\nvalue = [8, 0]"] ;
264 -> 272 ;
273 [label="Age_is_null <= 0.5\ngini = 0.3\nsamples = 3\nvalue = [1, 4]"] ;
263 -> 273 ;
274 [label="Age <= 30.0\ngini = 0.5\nsamples = 2\nvalue = [1, 1]"] ;
273 -> 274 ;
275 [label="gini = 0.0\nsamples = 1\nvalue = [1, 0]"] ;
274 -> 275 ;
276 [label="gini = 0.0\nsamples = 1\nvalue = [0, 1]"] ;
274 -> 276 ;
277 [label="gini = 0.0\nsamples = 1\nvalue = [0, 3]"] ;
273 -> 277 ;
278 [label="Age <= 2.5\ngini = 0.5\nsamples = 8\nvalue = [7, 6]"] ;
262 -> 278 ;
279 [label="gini = 0.0\nsamples = 3\nvalue = [6, 0]"] ;
278 -> 279 ;
280 [label="Embarked_Q <= 0.5\ngini = 0.2\nsamples = 5\nvalue = [1, 6]"] ;
278 -> 280 ;
281 [label="gini = 0.0\nsamples = 4\nvalue = [0, 6]"] ;
280 -> 281 ;
282 [label="gini = 0.0\nsamples = 1\nvalue = [1, 0]"] ;
280 -> 282 ;
283 [label="Age_is_null <= 0.5\ngini = 0.4\nsamples = 18\nvalue = [18, 6]"] ;
243 -> 283 ;
284 [label="SibSp <= 4.5\ngini = 0.5\nsamples = 12\nvalue = [8, 6]"] ;
283 -> 284 ;
285 [label="Is_male <= 0.5\ngini = 0.5\nsamples = 8\nvalue = [4, 6]"] ;
284 -> 285 ;
286 [label="Embarked_S <= 0.5\ngini = 0.5\nsamples = 5\nvalue = [3, 2]"] ;
285 -> 286 ;
287 [label="gini = 0.0\nsamples = 1\nvalue = [0, 1]"] ;
286 -> 287 ;
288 [label="Age <= 3.5\ngini = 0.4\nsamples = 4\nvalue = [3, 1]"] ;
286 -> 288 ;
289 [label="gini = 0.0\nsamples = 2\nvalue = [2, 0]"] ;
288 -> 289 ;
290 [label="Age <= 7.5\ngini = 0.5\nsamples = 2\nvalue = [1, 1]"] ;
288 -> 290 ;
291 [label="gini = 0.0\nsamples = 1\nvalue = [0, 1]"] ;
290 -> 291 ;
292 [label="gini = 0.0\nsamples = 1\nvalue = [1, 0]"] ;
290 -> 292 ;
293 [label="SibSp <= 2.5\ngini = 0.3\nsamples = 3\nvalue = [1, 4]"] ;
285 -> 293 ;
294 [label="gini = 0.0\nsamples = 1\nvalue = [0, 1]"] ;
293 -> 294 ;
295 [label="Fare <= 31.3\ngini = 0.4\nsamples = 2\nvalue = [1, 3]"] ;
293 -> 295 ;
296 [label="gini = 0.0\nsamples = 1\nvalue = [1, 0]"] ;
295 -> 296 ;
297 [label="gini = 0.0\nsamples = 1\nvalue = [0, 3]"] ;
295 -> 297 ;
298 [label="gini = 0.0\nsamples = 4\nvalue = [4, 0]"] ;
284 -> 298 ;
299 [label="gini = 0.0\nsamples = 6\nvalue = [10, 0]"] ;
283 -> 299 ;
300 [label="Age_is_null <= 0.5\ngini = 0.5\nsamples = 16\nvalue = [11, 19]"] ;
242 -> 300 ;
301 [label="Embarked_S <= 0.5\ngini = 0.5\nsamples = 12\nvalue = [9, 12]"] ;
300 -> 301 ;
302 [label="gini = 0.0\nsamples = 1\nvalue = [0, 3]"] ;
301 -> 302 ;
303 [label="SibSp <= 2.0\ngini = 0.5\nsamples = 11\nvalue = [9, 9]"] ;
301 -> 303 ;
304 [label="Deck_e <= 0.5\ngini = 0.5\nsamples = 10\nvalue = [9, 6]"] ;
303 -> 304 ;
305 [label="Fare <= 20.8\ngini = 0.5\nsamples = 9\nvalue = [9, 5]"] ;
304 -> 305 ;
306 [label="gini = 0.0\nsamples = 4\nvalue = [0, 5]"] ;
305 -> 306 ;
307 [label="gini = 0.0\nsamples = 5\nvalue = [9, 0]"] ;
305 -> 307 ;
308 [label="gini = 0.0\nsamples = 1\nvalue = [0, 1]"] ;
304 -> 308 ;
309 [label="gini = 0.0\nsamples = 1\nvalue = [0, 3]"] ;
303 -> 309 ;
310 [label="Parch <= 1.0\ngini = 0.3\nsamples = 4\nvalue = [2, 7]"] ;
300 -> 310 ;
311 [label="gini = 0.0\nsamples = 3\nvalue = [0, 7]"] ;
310 -> 311 ;
312 [label="gini = 0.0\nsamples = 1\nvalue = [2, 0]"] ;
310 -> 312 ;
}