digraph Tree {
node [shape=box, style="filled, rounded", color="black", fontname=helvetica] ;
edge [fontname=helvetica] ;
0 [label="Mrs <= 0.5\ngini = 0.5\nsamples = 426\nvalue = [414, 254]", fillcolor="#e5813963"] ;
1 [label="Fare_log <= 4.3\ngini = 0.4\nsamples = 360\nvalue = [394, 175]", fillcolor="#e581398e"] ;
0 -> 1 [labeldistance=2.5, labelangle=45, headlabel="True"] ;
2 [label="Miss <= 0.5\ngini = 0.4\nsamples = 322\nvalue = [377, 142]", fillcolor="#e581399f"] ;
1 -> 2 ;
3 [label="Is_male <= 0.5\ngini = 0.3\nsamples = 262\nvalue = [329, 81]", fillcolor="#e58139c0"] ;
2 -> 3 ;
4 [label="gini = 0.0\nsamples = 4\nvalue = [0, 4]", fillcolor="#399de5ff"] ;
3 -> 4 ;
5 [label="Age <= 0.9\ngini = 0.3\nsamples = 258\nvalue = [329, 77]", fillcolor="#e58139c3"] ;
3 -> 5 ;
6 [label="gini = 0.0\nsamples = 4\nvalue = [0, 7]", fillcolor="#399de5ff"] ;
5 -> 6 ;
7 [label="Fare_log <= 4.0\ngini = 0.3\nsamples = 254\nvalue = [329, 70]", fillcolor="#e58139c9"] ;
5 -> 7 ;
8 [label="Deck_c <= 0.5\ngini = 0.3\nsamples = 241\nvalue = [315, 62]", fillcolor="#e58139cd"] ;
7 -> 8 ;
9 [label="Name_spaces <= 3.5\ngini = 0.3\nsamples = 234\nvalue = [307, 57]", fillcolor="#e58139d0"] ;
8 -> 9 ;
10 [label="Embarked_C <= 0.5\ngini = 0.2\nsamples = 203\nvalue = [277, 44]", fillcolor="#e58139d6"] ;
9 -> 10 ;
11 [label="Age <= 5.5\ngini = 0.2\nsamples = 170\nvalue = [237, 31]", fillcolor="#e58139de"] ;
10 -> 11 ;
12 [label="SibSp <= 2.0\ngini = 0.5\nsamples = 5\nvalue = [4, 3]", fillcolor="#e5813940"] ;
11 -> 12 ;
13 [label="gini = 0.0\nsamples = 2\nvalue = [0, 3]", fillcolor="#399de5ff"] ;
12 -> 13 ;
14 [label="gini = 0.0\nsamples = 3\nvalue = [4, 0]", fillcolor="#e58139ff"] ;
12 -> 14 ;
15 [label="Mr <= 0.5\ngini = 0.2\nsamples = 165\nvalue = [233, 28]", fillcolor="#e58139e0"] ;
11 -> 15 ;
16 [label="gini = 0.0\nsamples = 12\nvalue = [24, 0]", fillcolor="#e58139ff"] ;
15 -> 16 ;
17 [label="Fare_log <= 2.2\ngini = 0.2\nsamples = 153\nvalue = [209, 28]", fillcolor="#e58139dd"] ;
15 -> 17 ;
18 [label="Age <= 28.0\ngini = 0.1\nsamples = 23\nvalue = [30, 1]", fillcolor="#e58139f6"] ;
17 -> 18 ;
19 [label="Age <= 26.0\ngini = 0.1\nsamples = 9\nvalue = [13, 1]", fillcolor="#e58139eb"] ;
18 -> 19 ;
20 [label="gini = 0.0\nsamples = 8\nvalue = [13, 0]", fillcolor="#e58139ff"] ;
19 -> 20 ;
21 [label="gini = 0.0\nsamples = 1\nvalue = [0, 1]", fillcolor="#399de5ff"] ;
19 -> 21 ;
22 [label="gini = 0.0\nsamples = 14\nvalue = [17, 0]", fillcolor="#e58139ff"] ;
18 -> 22 ;
23 [label="Name_spaces <= 2.5\ngini = 0.2\nsamples = 130\nvalue = [179, 27]", fillcolor="#e58139d9"] ;
17 -> 23 ;
24 [label="Pclass <= 2.5\ngini = 0.1\nsamples = 58\nvalue = [89, 7]", fillcolor="#e58139eb"] ;
23 -> 24 ;
25 [label="Fare <= 11.8\ngini = 0.4\nsamples = 12\nvalue = [12, 4]", fillcolor="#e58139aa"] ;
24 -> 25 ;
26 [label="gini = 0.0\nsamples = 2\nvalue = [4, 0]", fillcolor="#e58139ff"] ;
25 -> 26 ;
27 [label="Fare_log <= 3.3\ngini = 0.4\nsamples = 10\nvalue = [8, 4]", fillcolor="#e581397f"] ;
25 -> 27 ;
28 [label="Fare <= 19.5\ngini = 0.5\nsamples = 7\nvalue = [4, 4]", fillcolor="#e5813900"] ;
27 -> 28 ;
29 [label="Age <= 40.5\ngini = 0.5\nsamples = 4\nvalue = [2, 3]", fillcolor="#399de555"] ;
28 -> 29 ;
30 [label="Age <= 32.5\ngini = 0.4\nsamples = 3\nvalue = [2, 1]", fillcolor="#e581397f"] ;
29 -> 30 ;
31 [label="gini = 0.0\nsamples = 1\nvalue = [0, 1]", fillcolor="#399de5ff"] ;
30 -> 31 ;
32 [label="gini = 0.0\nsamples = 2\nvalue = [2, 0]", fillcolor="#e58139ff"] ;
30 -> 32 ;
33 [label="gini = 0.0\nsamples = 1\nvalue = [0, 2]", fillcolor="#399de5ff"] ;
29 -> 33 ;
34 [label="Age <= 33.0\ngini = 0.4\nsamples = 3\nvalue = [2, 1]", fillcolor="#e581397f"] ;
28 -> 34 ;
35 [label="gini = 0.0\nsamples = 1\nvalue = [0, 1]", fillcolor="#399de5ff"] ;
34 -> 35 ;
36 [label="gini = 0.0\nsamples = 2\nvalue = [2, 0]", fillcolor="#e58139ff"] ;
34 -> 36 ;
37 [label="gini = 0.0\nsamples = 3\nvalue = [4, 0]", fillcolor="#e58139ff"] ;
27 -> 37 ;
38 [label="Age_is_null <= 0.5\ngini = 0.1\nsamples = 46\nvalue = [77, 3]", fillcolor="#e58139f5"] ;
24 -> 38 ;
39 [label="Embarked_S <= 0.5\ngini = 0.0\nsamples = 25\nvalue = [46, 1]", fillcolor="#e58139f9"] ;
38 -> 39 ;
40 [label="gini = 0.0\nsamples = 2\nvalue = [2, 0]", fillcolor="#e58139ff"] ;
39 -> 40 ;
41 [label="Fare <= 8.4\ngini = 0.0\nsamples = 23\nvalue = [44, 1]", fillcolor="#e58139f9"] ;
39 -> 41 ;
42 [label="gini = 0.0\nsamples = 18\nvalue = [37, 0]", fillcolor="#e58139ff"] ;
41 -> 42 ;
43 [label="Fare <= 16.4\ngini = 0.2\nsamples = 5\nvalue = [7, 1]", fillcolor="#e58139db"] ;
41 -> 43 ;
44 [label="Age <= 22.0\ngini = 0.3\nsamples = 3\nvalue = [5, 1]", fillcolor="#e58139cc"] ;
43 -> 44 ;
45 [label="gini = 0.0\nsamples = 1\nvalue = [3, 0]", fillcolor="#e58139ff"] ;
44 -> 45 ;
46 [label="Age <= 32.5\ngini = 0.4\nsamples = 2\nvalue = [2, 1]", fillcolor="#e581397f"] ;
44 -> 46 ;
47 [label="gini = 0.0\nsamples = 1\nvalue = [0, 1]", fillcolor="#399de5ff"] ;
46 -> 47 ;
48 [label="gini = 0.0\nsamples = 1\nvalue = [2, 0]", fillcolor="#e58139ff"] ;
46 -> 48 ;
49 [label="gini = 0.0\nsamples = 2\nvalue = [2, 0]", fillcolor="#e58139ff"] ;
43 -> 49 ;
50 [label="Fare_log_round <= 2.5\ngini = 0.1\nsamples = 21\nvalue = [31, 2]", fillcolor="#e58139ef"] ;
38 -> 50 ;
51 [label="Fare_log <= 2.2\ngini = 0.1\nsamples = 17\nvalue = [28, 1]", fillcolor="#e58139f6"] ;
50 -> 51 ;
52 [label="gini = 0.0\nsamples = 15\nvalue = [27, 0]", fillcolor="#e58139ff"] ;
51 -> 52 ;
53 [label="Fare_log <= 2.2\ngini = 0.5\nsamples = 2\nvalue = [1, 1]", fillcolor="#e5813900"] ;
51 -> 53 ;
54 [label="gini = 0.0\nsamples = 1\nvalue = [0, 1]", fillcolor="#399de5ff"] ;
53 -> 54 ;
55 [label="gini = 0.0\nsamples = 1\nvalue = [1, 0]", fillcolor="#e58139ff"] ;
53 -> 55 ;
56 [label="Embarked_Q <= 0.5\ngini = 0.4\nsamples = 4\nvalue = [3, 1]", fillcolor="#e58139aa"] ;
50 -> 56 ;
57 [label="gini = 0.0\nsamples = 1\nvalue = [1, 0]", fillcolor="#e58139ff"] ;
56 -> 57 ;
58 [label="Fare_log <= 3.0\ngini = 0.4\nsamples = 3\nvalue = [2, 1]", fillcolor="#e581397f"] ;
56 -> 58 ;
59 [label="gini = 0.0\nsamples = 1\nvalue = [1, 0]", fillcolor="#e58139ff"] ;
58 -> 59 ;
60 [label="SibSp <= 1.0\ngini = 0.5\nsamples = 2\nvalue = [1, 1]", fillcolor="#e5813900"] ;
58 -> 60 ;
61 [label="gini = 0.0\nsamples = 1\nvalue = [1, 0]", fillcolor="#e58139ff"] ;
60 -> 61 ;
62 [label="gini = 0.0\nsamples = 1\nvalue = [0, 1]", fillcolor="#399de5ff"] ;
60 -> 62 ;
63 [label="Embarked_Q <= 0.5\ngini = 0.3\nsamples = 72\nvalue = [90, 20]", fillcolor="#e58139c6"] ;
23 -> 63 ;
64 [label="Fare_log <= 2.2\ngini = 0.3\nsamples = 68\nvalue = [87, 17]", fillcolor="#e58139cd"] ;
63 -> 64 ;
65 [label="Age_is_null <= 0.5\ngini = 0.5\nsamples = 4\nvalue = [3, 4]", fillcolor="#399de540"] ;
64 -> 65 ;
66 [label="SibSp <= 0.5\ngini = 0.5\nsamples = 3\nvalue = [3, 2]", fillcolor="#e5813955"] ;
65 -> 66 ;
67 [label="gini = 0.0\nsamples = 2\nvalue = [3, 0]", fillcolor="#e58139ff"] ;
66 -> 67 ;
68 [label="gini = 0.0\nsamples = 1\nvalue = [0, 2]", fillcolor="#399de5ff"] ;
66 -> 68 ;
69 [label="gini = 0.0\nsamples = 1\nvalue = [0, 2]", fillcolor="#399de5ff"] ;
65 -> 69 ;
70 [label="Age_is_null <= 0.5\ngini = 0.2\nsamples = 64\nvalue = [84, 13]", fillcolor="#e58139d8"] ;
64 -> 70 ;
71 [label="Fare <= 10.0\ngini = 0.2\nsamples = 56\nvalue = [77, 11]", fillcolor="#e58139db"] ;
70 -> 71 ;
72 [label="Age_is_estimated <= 0.5\ngini = 0.4\nsamples = 24\nvalue = [26, 8]", fillcolor="#e58139b1"] ;
71 -> 72 ;
73 [label="Age <= 19.5\ngini = 0.4\nsamples = 23\nvalue = [24, 8]", fillcolor="#e58139aa"] ;
72 -> 73 ;
74 [label="Fare <= 8.0\ngini = 0.4\nsamples = 5\nvalue = [2, 5]", fillcolor="#399de599"] ;
73 -> 74 ;
75 [label="gini = 0.0\nsamples = 1\nvalue = [1, 0]", fillcolor="#e58139ff"] ;
74 -> 75 ;
76 [label="Age <= 18.5\ngini = 0.3\nsamples = 4\nvalue = [1, 5]", fillcolor="#399de5cc"] ;
74 -> 76 ;
77 [label="gini = 0.0\nsamples = 2\nvalue = [0, 4]", fillcolor="#399de5ff"] ;
76 -> 77 ;
78 [label="gini = 0.5\nsamples = 2\nvalue = [1, 1]", fillcolor="#e5813900"] ;
76 -> 78 ;
79 [label="Fare <= 9.5\ngini = 0.2\nsamples = 18\nvalue = [22, 3]", fillcolor="#e58139dc"] ;
73 -> 79 ;
80 [label="Fare_log <= 2.2\ngini = 0.1\nsamples = 16\nvalue = [22, 1]", fillcolor="#e58139f3"] ;
79 -> 80 ;
81 [label="Fare <= 7.9\ngini = 0.2\nsamples = 7\nvalue = [9, 1]", fillcolor="#e58139e3"] ;
80 -> 81 ;
82 [label="gini = 0.0\nsamples = 5\nvalue = [8, 0]", fillcolor="#e58139ff"] ;
81 -> 82 ;
83 [label="Age <= 41.5\ngini = 0.5\nsamples = 2\nvalue = [1, 1]", fillcolor="#e5813900"] ;
81 -> 83 ;
84 [label="gini = 0.0\nsamples = 1\nvalue = [1, 0]", fillcolor="#e58139ff"] ;
83 -> 84 ;
85 [label="gini = 0.0\nsamples = 1\nvalue = [0, 1]", fillcolor="#399de5ff"] ;
83 -> 85 ;
86 [label="gini = 0.0\nsamples = 9\nvalue = [13, 0]", fillcolor="#e58139ff"] ;
80 -> 86 ;
87 [label="gini = 0.0\nsamples = 2\nvalue = [0, 2]", fillcolor="#399de5ff"] ;
79 -> 87 ;
88 [label="gini = 0.0\nsamples = 1\nvalue = [2, 0]", fillcolor="#e58139ff"] ;
72 -> 88 ;
89 [label="Pclass <= 1.5\ngini = 0.1\nsamples = 32\nvalue = [51, 3]", fillcolor="#e58139f0"] ;
71 -> 89 ;
90 [label="Fare_log <= 3.4\ngini = 0.4\nsamples = 7\nvalue = [8, 3]", fillcolor="#e581399f"] ;
89 -> 90 ;
91 [label="Fare_log <= 3.3\ngini = 0.4\nsamples = 3\nvalue = [1, 3]", fillcolor="#399de5aa"] ;
90 -> 91 ;
92 [label="gini = 0.0\nsamples = 1\nvalue = [1, 0]", fillcolor="#e58139ff"] ;
91 -> 92 ;
93 [label="gini = 0.0\nsamples = 2\nvalue = [0, 3]", fillcolor="#399de5ff"] ;
91 -> 93 ;
94 [label="gini = 0.0\nsamples = 4\nvalue = [7, 0]", fillcolor="#e58139ff"] ;
90 -> 94 ;
95 [label="gini = 0.0\nsamples = 25\nvalue = [43, 0]", fillcolor="#e58139ff"] ;
89 -> 95 ;
96 [label="Pclass <= 2.5\ngini = 0.3\nsamples = 8\nvalue = [7, 2]", fillcolor="#e58139b6"] ;
70 -> 96 ;
97 [label="Fare_log <= 3.0\ngini = 0.5\nsamples = 3\nvalue = [2, 2]", fillcolor="#e5813900"] ;
96 -> 97 ;
98 [label="gini = 0.0\nsamples = 1\nvalue = [0, 1]", fillcolor="#399de5ff"] ;
97 -> 98 ;
99 [label="Fare <= 28.0\ngini = 0.4\nsamples = 2\nvalue = [2, 1]", fillcolor="#e581397f"] ;
97 -> 99 ;
100 [label="gini = 0.0\nsamples = 1\nvalue = [2, 0]", fillcolor="#e58139ff"] ;
99 -> 100 ;
101 [label="gini = 0.0\nsamples = 1\nvalue = [0, 1]", fillcolor="#399de5ff"] ;
99 -> 101 ;
102 [label="gini = 0.0\nsamples = 5\nvalue = [5, 0]", fillcolor="#e58139ff"] ;
96 -> 102 ;
103 [label="Age_is_null <= 0.5\ngini = 0.5\nsamples = 4\nvalue = [3, 3]", fillcolor="#e5813900"] ;
63 -> 103 ;
104 [label="gini = 0.0\nsamples = 1\nvalue = [0, 2]", fillcolor="#399de5ff"] ;
103 -> 104 ;
105 [label="gini = 0.4\nsamples = 3\nvalue = [3, 1]", fillcolor="#e58139aa"] ;
103 -> 105 ;
106 [label="Fare_log_round <= 3.5\ngini = 0.4\nsamples = 33\nvalue = [40, 13]", fillcolor="#e58139ac"] ;
10 -> 106 ;
107 [label="Age_is_estimated <= 0.5\ngini = 0.4\nsamples = 29\nvalue = [33, 13]", fillcolor="#e581399b"] ;
106 -> 107 ;
108 [label="Mr <= 0.5\ngini = 0.4\nsamples = 27\nvalue = [30, 13]", fillcolor="#e5813991"] ;
107 -> 108 ;
109 [label="Master <= 0.5\ngini = 0.5\nsamples = 3\nvalue = [3, 3]", fillcolor="#e5813900"] ;
108 -> 109 ;
110 [label="gini = 0.0\nsamples = 1\nvalue = [3, 0]", fillcolor="#e58139ff"] ;
109 -> 110 ;
111 [label="gini = 0.0\nsamples = 2\nvalue = [0, 3]", fillcolor="#399de5ff"] ;
109 -> 111 ;
112 [label="Fare_log <= 3.5\ngini = 0.4\nsamples = 24\nvalue = [27, 10]", fillcolor="#e58139a1"] ;
108 -> 112 ;
113 [label="Age <= 29.5\ngini = 0.4\nsamples = 23\nvalue = [27, 9]", fillcolor="#e58139aa"] ;
112 -> 113 ;
114 [label="Age <= 27.5\ngini = 0.5\nsamples = 7\nvalue = [6, 4]", fillcolor="#e5813955"] ;
113 -> 114 ;
115 [label="Fare_log <= 2.9\ngini = 0.4\nsamples = 6\nvalue = [6, 2]", fillcolor="#e58139aa"] ;
114 -> 115 ;
116 [label="SibSp <= 0.5\ngini = 0.2\nsamples = 5\nvalue = [6, 1]", fillcolor="#e58139d4"] ;
115 -> 116 ;
117 [label="Fare_log <= 2.4\ngini = 0.4\nsamples = 3\nvalue = [3, 1]", fillcolor="#e58139aa"] ;
116 -> 117 ;
118 [label="Name_spaces <= 2.5\ngini = 0.5\nsamples = 2\nvalue = [1, 1]", fillcolor="#e5813900"] ;
117 -> 118 ;
119 [label="gini = 0.0\nsamples = 1\nvalue = [1, 0]", fillcolor="#e58139ff"] ;
118 -> 119 ;
120 [label="gini = 0.0\nsamples = 1\nvalue = [0, 1]", fillcolor="#399de5ff"] ;
118 -> 120 ;
121 [label="gini = 0.0\nsamples = 1\nvalue = [2, 0]", fillcolor="#e58139ff"] ;
117 -> 121 ;
122 [label="gini = 0.0\nsamples = 2\nvalue = [3, 0]", fillcolor="#e58139ff"] ;
116 -> 122 ;
123 [label="gini = 0.0\nsamples = 1\nvalue = [0, 1]", fillcolor="#399de5ff"] ;
115 -> 123 ;
124 [label="gini = 0.0\nsamples = 1\nvalue = [0, 2]", fillcolor="#399de5ff"] ;
114 -> 124 ;
125 [label="Pclass <= 2.0\ngini = 0.3\nsamples = 16\nvalue = [21, 5]", fillcolor="#e58139c2"] ;
113 -> 125 ;
126 [label="gini = 0.0\nsamples = 2\nvalue = [2, 0]", fillcolor="#e58139ff"] ;
125 -> 126 ;
127 [label="Fare_log_round <= 2.5\ngini = 0.3\nsamples = 14\nvalue = [19, 5]", fillcolor="#e58139bc"] ;
125 -> 127 ;
128 [label="Age <= 31.5\ngini = 0.4\nsamples = 12\nvalue = [16, 5]", fillcolor="#e58139af"] ;
127 -> 128 ;
129 [label="Age_is_null <= 0.5\ngini = 0.4\nsamples = 10\nvalue = [13, 5]", fillcolor="#e581399d"] ;
128 -> 129 ;
130 [label="gini = 0.0\nsamples = 1\nvalue = [1, 0]", fillcolor="#e58139ff"] ;
129 -> 130 ;
131 [label="Name_spaces <= 2.5\ngini = 0.4\nsamples = 9\nvalue = [12, 5]", fillcolor="#e5813995"] ;
129 -> 131 ;
132 [label="Fare <= 7.6\ngini = 0.4\nsamples = 8\nvalue = [10, 5]", fillcolor="#e581397f"] ;
131 -> 132 ;
133 [label="Fare <= 7.2\ngini = 0.5\nsamples = 5\nvalue = [7, 5]", fillcolor="#e5813949"] ;
132 -> 133 ;
134 [label="gini = 0.0\nsamples = 1\nvalue = [1, 0]", fillcolor="#e58139ff"] ;
133 -> 134 ;
135 [label="gini = 0.5\nsamples = 4\nvalue = [6, 5]", fillcolor="#e581392a"] ;
133 -> 135 ;
136 [label="gini = 0.0\nsamples = 3\nvalue = [3, 0]", fillcolor="#e58139ff"] ;
132 -> 136 ;
137 [label="gini = 0.0\nsamples = 1\nvalue = [2, 0]", fillcolor="#e58139ff"] ;
131 -> 137 ;
138 [label="gini = 0.0\nsamples = 2\nvalue = [3, 0]", fillcolor="#e58139ff"] ;
128 -> 138 ;
139 [label="gini = 0.0\nsamples = 2\nvalue = [3, 0]", fillcolor="#e58139ff"] ;
127 -> 139 ;
140 [label="gini = 0.0\nsamples = 1\nvalue = [0, 1]", fillcolor="#399de5ff"] ;
112 -> 140 ;
141 [label="gini = 0.0\nsamples = 2\nvalue = [3, 0]", fillcolor="#e58139ff"] ;
107 -> 141 ;
142 [label="gini = 0.0\nsamples = 4\nvalue = [7, 0]", fillcolor="#e58139ff"] ;
106 -> 142 ;
143 [label="Embarked_S <= 0.5\ngini = 0.4\nsamples = 31\nvalue = [30, 13]", fillcolor="#e5813991"] ;
9 -> 143 ;
144 [label="Pclass <= 2.5\ngini = 0.3\nsamples = 4\nvalue = [1, 4]", fillcolor="#399de5bf"] ;
143 -> 144 ;
145 [label="Fare_log <= 3.2\ngini = 0.5\nsamples = 2\nvalue = [1, 1]", fillcolor="#e5813900"] ;
144 -> 145 ;
146 [label="gini = 0.0\nsamples = 1\nvalue = [0, 1]", fillcolor="#399de5ff"] ;
145 -> 146 ;
147 [label="gini = 0.0\nsamples = 1\nvalue = [1, 0]", fillcolor="#e58139ff"] ;
145 -> 147 ;
148 [label="gini = 0.0\nsamples = 2\nvalue = [0, 3]", fillcolor="#399de5ff"] ;
144 -> 148 ;
149 [label="Master <= 0.5\ngini = 0.4\nsamples = 27\nvalue = [29, 9]", fillcolor="#e58139b0"] ;
143 -> 149 ;
150 [label="Fare <= 26.2\ngini = 0.3\nsamples = 25\nvalue = [28, 6]", fillcolor="#e58139c8"] ;
149 -> 150 ;
151 [label="Fare <= 7.9\ngini = 0.1\nsamples = 18\nvalue = [25, 1]", fillcolor="#e58139f5"] ;
150 -> 151 ;
152 [label="Fare <= 7.8\ngini = 0.3\nsamples = 5\nvalue = [5, 1]", fillcolor="#e58139cc"] ;
151 -> 152 ;
153 [label="gini = 0.0\nsamples = 4\nvalue = [5, 0]", fillcolor="#e58139ff"] ;
152 -> 153 ;
154 [label="gini = 0.0\nsamples = 1\nvalue = [0, 1]", fillcolor="#399de5ff"] ;
152 -> 154 ;
155 [label="gini = 0.0\nsamples = 13\nvalue = [20, 0]", fillcolor="#e58139ff"] ;
151 -> 155 ;
156 [label="Deck_a <= 0.5\ngini = 0.5\nsamples = 7\nvalue = [3, 5]", fillcolor="#399de566"] ;
150 -> 156 ;
157 [label="Fare <= 30.0\ngini = 0.4\nsamples = 6\nvalue = [2, 5]", fillcolor="#399de599"] ;
156 -> 157 ;
158 [label="gini = 0.0\nsamples = 4\nvalue = [0, 4]", fillcolor="#399de5ff"] ;
157 -> 158 ;
159 [label="Age <= 51.5\ngini = 0.4\nsamples = 2\nvalue = [2, 1]", fillcolor="#e581397f"] ;
157 -> 159 ;
160 [label="gini = 0.0\nsamples = 1\nvalue = [0, 1]", fillcolor="#399de5ff"] ;
159 -> 160 ;
161 [label="gini = 0.0\nsamples = 1\nvalue = [2, 0]", fillcolor="#e58139ff"] ;
159 -> 161 ;
162 [label="gini = 0.0\nsamples = 1\nvalue = [1, 0]", fillcolor="#e58139ff"] ;
156 -> 162 ;
163 [label="SibSp <= 2.5\ngini = 0.4\nsamples = 2\nvalue = [1, 3]", fillcolor="#399de5aa"] ;
149 -> 163 ;
164 [label="gini = 0.0\nsamples = 1\nvalue = [0, 3]", fillcolor="#399de5ff"] ;
163 -> 164 ;
165 [label="gini = 0.0\nsamples = 1\nvalue = [1, 0]", fillcolor="#e58139ff"] ;
163 -> 165 ;
166 [label="Age_is_null <= 0.5\ngini = 0.5\nsamples = 7\nvalue = [8, 5]", fillcolor="#e5813960"] ;
8 -> 166 ;
167 [label="Age_is_estimated <= 0.5\ngini = 0.5\nsamples = 6\nvalue = [4, 5]", fillcolor="#399de533"] ;
166 -> 167 ;
168 [label="Age <= 29.0\ngini = 0.5\nsamples = 5\nvalue = [3, 5]", fillcolor="#399de566"] ;
167 -> 168 ;
169 [label="gini = 0.0\nsamples = 2\nvalue = [0, 5]", fillcolor="#399de5ff"] ;
168 -> 169 ;
170 [label="gini = 0.0\nsamples = 3\nvalue = [3, 0]", fillcolor="#e58139ff"] ;
168 -> 170 ;
171 [label="gini = 0.0\nsamples = 1\nvalue = [1, 0]", fillcolor="#e58139ff"] ;
167 -> 171 ;
172 [label="gini = 0.0\nsamples = 1\nvalue = [4, 0]", fillcolor="#e58139ff"] ;
166 -> 172 ;
173 [label="Fare <= 65.0\ngini = 0.5\nsamples = 13\nvalue = [14, 8]", fillcolor="#e581396d"] ;
7 -> 173 ;
174 [label="Fare <= 62.7\ngini = 0.4\nsamples = 8\nvalue = [4, 8]", fillcolor="#399de57f"] ;
173 -> 174 ;
175 [label="Age <= 29.0\ngini = 0.5\nsamples = 7\nvalue = [4, 6]", fillcolor="#399de555"] ;
174 -> 175 ;
176 [label="gini = 0.0\nsamples = 1\nvalue = [2, 0]", fillcolor="#e58139ff"] ;
175 -> 176 ;
177 [label="Age <= 48.5\ngini = 0.4\nsamples = 6\nvalue = [2, 6]", fillcolor="#399de5aa"] ;
175 -> 177 ;
178 [label="Fare_log <= 4.1\ngini = 0.2\nsamples = 5\nvalue = [1, 6]", fillcolor="#399de5d4"] ;
177 -> 178 ;
179 [label="Age <= 31.0\ngini = 0.3\nsamples = 4\nvalue = [1, 4]", fillcolor="#399de5bf"] ;
178 -> 179 ;
180 [label="gini = 0.4\nsamples = 3\nvalue = [1, 3]", fillcolor="#399de5aa"] ;
179 -> 180 ;
181 [label="gini = 0.0\nsamples = 1\nvalue = [0, 1]", fillcolor="#399de5ff"] ;
179 -> 181 ;
182 [label="gini = 0.0\nsamples = 1\nvalue = [0, 2]", fillcolor="#399de5ff"] ;
178 -> 182 ;
183 [label="gini = 0.0\nsamples = 1\nvalue = [1, 0]", fillcolor="#e58139ff"] ;
177 -> 183 ;
184 [label="gini = 0.0\nsamples = 1\nvalue = [0, 2]", fillcolor="#399de5ff"] ;
174 -> 184 ;
185 [label="gini = 0.0\nsamples = 5\nvalue = [10, 0]", fillcolor="#e58139ff"] ;
173 -> 185 ;
186 [label="SibSp <= 2.5\ngini = 0.5\nsamples = 60\nvalue = [48, 61]", fillcolor="#399de536"] ;
2 -> 186 ;
187 [label="Fare_log_round <= 2.5\ngini = 0.4\nsamples = 50\nvalue = [25, 61]", fillcolor="#399de596"] ;
186 -> 187 ;
188 [label="Fare <= 7.6\ngini = 0.5\nsamples = 26\nvalue = [22, 20]", fillcolor="#e5813917"] ;
187 -> 188 ;
189 [label="gini = 0.0\nsamples = 4\nvalue = [0, 5]", fillcolor="#399de5ff"] ;
188 -> 189 ;
190 [label="Embarked_Q <= 0.5\ngini = 0.5\nsamples = 22\nvalue = [22, 15]", fillcolor="#e5813951"] ;
188 -> 190 ;
191 [label="Name_spaces <= 2.5\ngini = 0.4\nsamples = 12\nvalue = [17, 7]", fillcolor="#e5813996"] ;
190 -> 191 ;
192 [label="Fare_log <= 2.2\ngini = 0.4\nsamples = 3\nvalue = [1, 2]", fillcolor="#399de57f"] ;
191 -> 192 ;
193 [label="gini = 0.0\nsamples = 1\nvalue = [0, 1]", fillcolor="#399de5ff"] ;
192 -> 193 ;
194 [label="Fare <= 7.9\ngini = 0.5\nsamples = 2\nvalue = [1, 1]", fillcolor="#e5813900"] ;
192 -> 194 ;
195 [label="gini = 0.0\nsamples = 1\nvalue = [1, 0]", fillcolor="#e58139ff"] ;
194 -> 195 ;
196 [label="gini = 0.0\nsamples = 1\nvalue = [0, 1]", fillcolor="#399de5ff"] ;
194 -> 196 ;
197 [label="Fare <= 9.8\ngini = 0.4\nsamples = 9\nvalue = [16, 5]", fillcolor="#e58139af"] ;
191 -> 197 ;
198 [label="gini = 0.0\nsamples = 7\nvalue = [16, 0]", fillcolor="#e58139ff"] ;
197 -> 198 ;
199 [label="gini = 0.0\nsamples = 2\nvalue = [0, 5]", fillcolor="#399de5ff"] ;
197 -> 199 ;
200 [label="Age <= 21.5\ngini = 0.5\nsamples = 10\nvalue = [5, 8]", fillcolor="#399de560"] ;
190 -> 200 ;
201 [label="gini = 0.0\nsamples = 1\nvalue = [2, 0]", fillcolor="#e58139ff"] ;
200 -> 201 ;
202 [label="Fare <= 8.0\ngini = 0.4\nsamples = 9\nvalue = [3, 8]", fillcolor="#399de59f"] ;
200 -> 202 ;
203 [label="Fare <= 7.7\ngini = 0.2\nsamples = 8\nvalue = [1, 8]", fillcolor="#399de5df"] ;
202 -> 203 ;
204 [label="gini = 0.0\nsamples = 1\nvalue = [1, 0]", fillcolor="#e58139ff"] ;
203 -> 204 ;
205 [label="gini = 0.0\nsamples = 7\nvalue = [0, 8]", fillcolor="#399de5ff"] ;
203 -> 205 ;
206 [label="gini = 0.0\nsamples = 1\nvalue = [2, 0]", fillcolor="#e58139ff"] ;
202 -> 206 ;
207 [label="Fare_log <= 3.5\ngini = 0.1\nsamples = 24\nvalue = [3, 41]", fillcolor="#399de5ec"] ;
187 -> 207 ;
208 [label="Embarked_C <= 0.5\ngini = 0.1\nsamples = 21\nvalue = [2, 37]", fillcolor="#399de5f1"] ;
207 -> 208 ;
209 [label="Fare <= 20.0\ngini = 0.1\nsamples = 16\nvalue = [1, 29]", fillcolor="#399de5f6"] ;
208 -> 209 ;
210 [label="Deck_e <= 0.5\ngini = 0.1\nsamples = 7\nvalue = [1, 12]", fillcolor="#399de5ea"] ;
209 -> 210 ;
211 [label="Embarked_Q <= 0.5\ngini = 0.2\nsamples = 6\nvalue = [1, 9]", fillcolor="#399de5e3"] ;
210 -> 211 ;
212 [label="SibSp <= 1.0\ngini = 0.2\nsamples = 5\nvalue = [1, 6]", fillcolor="#399de5d4"] ;
211 -> 212 ;
213 [label="gini = 0.0\nsamples = 4\nvalue = [0, 6]", fillcolor="#399de5ff"] ;
212 -> 213 ;
214 [label="gini = 0.0\nsamples = 1\nvalue = [1, 0]", fillcolor="#e58139ff"] ;
212 -> 214 ;
215 [label="gini = 0.0\nsamples = 1\nvalue = [0, 3]", fillcolor="#399de5ff"] ;
211 -> 215 ;
216 [label="gini = 0.0\nsamples = 1\nvalue = [0, 3]", fillcolor="#399de5ff"] ;
210 -> 216 ;
217 [label="gini = 0.0\nsamples = 9\nvalue = [0, 17]", fillcolor="#399de5ff"] ;
209 -> 217 ;
218 [label="SibSp <= 1.5\ngini = 0.2\nsamples = 5\nvalue = [1, 8]", fillcolor="#399de5df"] ;
208 -> 218 ;
219 [label="Parch <= 0.5\ngini = 0.3\nsamples = 3\nvalue = [1, 4]", fillcolor="#399de5bf"] ;
218 -> 219 ;
220 [label="gini = 0.0\nsamples = 2\nvalue = [0, 4]", fillcolor="#399de5ff"] ;
219 -> 220 ;
221 [label="gini = 0.0\nsamples = 1\nvalue = [1, 0]", fillcolor="#e58139ff"] ;
219 -> 221 ;
222 [label="gini = 0.0\nsamples = 2\nvalue = [0, 4]", fillcolor="#399de5ff"] ;
218 -> 222 ;
223 [label="Pclass <= 2.0\ngini = 0.3\nsamples = 3\nvalue = [1, 4]", fillcolor="#399de5bf"] ;
207 -> 223 ;
224 [label="gini = 0.0\nsamples = 2\nvalue = [0, 4]", fillcolor="#399de5ff"] ;
223 -> 224 ;
225 [label="gini = 0.0\nsamples = 1\nvalue = [1, 0]", fillcolor="#e58139ff"] ;
223 -> 225 ;
226 [label="gini = 0.0\nsamples = 10\nvalue = [23, 0]", fillcolor="#e58139ff"] ;
186 -> 226 ;
227 [label="Mr <= 0.5\ngini = 0.4\nsamples = 38\nvalue = [17, 33]", fillcolor="#399de57c"] ;
1 -> 227 ;
228 [label="Parch <= 1.5\ngini = 0.1\nsamples = 22\nvalue = [2, 26]", fillcolor="#399de5eb"] ;
227 -> 228 ;
229 [label="SibSp <= 1.5\ngini = 0.1\nsamples = 17\nvalue = [1, 22]", fillcolor="#399de5f3"] ;
228 -> 229 ;
230 [label="gini = 0.0\nsamples = 15\nvalue = [0, 21]", fillcolor="#399de5ff"] ;
229 -> 230 ;
231 [label="Deck_c <= 0.5\ngini = 0.5\nsamples = 2\nvalue = [1, 1]", fillcolor="#e5813900"] ;
229 -> 231 ;
232 [label="gini = 0.0\nsamples = 1\nvalue = [0, 1]", fillcolor="#399de5ff"] ;
231 -> 232 ;
233 [label="gini = 0.0\nsamples = 1\nvalue = [1, 0]", fillcolor="#e58139ff"] ;
231 -> 233 ;
234 [label="Deck_c <= 0.5\ngini = 0.3\nsamples = 5\nvalue = [1, 4]", fillcolor="#399de5bf"] ;
228 -> 234 ;
235 [label="gini = 0.0\nsamples = 1\nvalue = [0, 1]", fillcolor="#399de5ff"] ;
234 -> 235 ;
236 [label="Fare_log_round <= 5.5\ngini = 0.4\nsamples = 4\nvalue = [1, 3]", fillcolor="#399de5aa"] ;
234 -> 236 ;
237 [label="SibSp <= 0.5\ngini = 0.5\nsamples = 2\nvalue = [1, 1]", fillcolor="#e5813900"] ;
236 -> 237 ;
238 [label="gini = 0.0\nsamples = 1\nvalue = [0, 1]", fillcolor="#399de5ff"] ;
237 -> 238 ;
239 [label="gini = 0.0\nsamples = 1\nvalue = [1, 0]", fillcolor="#e58139ff"] ;
237 -> 239 ;
240 [label="gini = 0.0\nsamples = 2\nvalue = [0, 2]", fillcolor="#399de5ff"] ;
236 -> 240 ;
241 [label="Fare <= 127.8\ngini = 0.4\nsamples = 16\nvalue = [15, 7]", fillcolor="#e5813988"] ;
227 -> 241 ;
242 [label="Fare <= 115.4\ngini = 0.5\nsamples = 9\nvalue = [7, 6]", fillcolor="#e5813924"] ;
241 -> 242 ;
243 [label="Fare_log <= 4.4\ngini = 0.4\nsamples = 8\nvalue = [7, 3]", fillcolor="#e5813992"] ;
242 -> 243 ;
244 [label="gini = 0.0\nsamples = 1\nvalue = [0, 1]", fillcolor="#399de5ff"] ;
243 -> 244 ;
245 [label="Embarked_C <= 0.5\ngini = 0.3\nsamples = 7\nvalue = [7, 2]", fillcolor="#e58139b6"] ;
243 -> 245 ;
246 [label="gini = 0.0\nsamples = 3\nvalue = [3, 0]", fillcolor="#e58139ff"] ;
245 -> 246 ;
247 [label="Age <= 20.5\ngini = 0.4\nsamples = 4\nvalue = [4, 2]", fillcolor="#e581397f"] ;
245 -> 247 ;
248 [label="gini = 0.0\nsamples = 1\nvalue = [0, 1]", fillcolor="#399de5ff"] ;
247 -> 248 ;
249 [label="Fare_log_round <= 4.5\ngini = 0.3\nsamples = 3\nvalue = [4, 1]", fillcolor="#e58139bf"] ;
247 -> 249 ;
250 [label="SibSp <= 0.5\ngini = 0.4\nsamples = 2\nvalue = [2, 1]", fillcolor="#e581397f"] ;
249 -> 250 ;
251 [label="gini = 0.0\nsamples = 1\nvalue = [2, 0]", fillcolor="#e58139ff"] ;
250 -> 251 ;
252 [label="gini = 0.0\nsamples = 1\nvalue = [0, 1]", fillcolor="#399de5ff"] ;
250 -> 252 ;
253 [label="gini = 0.0\nsamples = 1\nvalue = [2, 0]", fillcolor="#e58139ff"] ;
249 -> 253 ;
254 [label="gini = 0.0\nsamples = 1\nvalue = [0, 3]", fillcolor="#399de5ff"] ;
242 -> 254 ;
255 [label="Fare <= 387.7\ngini = 0.2\nsamples = 7\nvalue = [8, 1]", fillcolor="#e58139df"] ;
241 -> 255 ;
256 [label="gini = 0.0\nsamples = 6\nvalue = [8, 0]", fillcolor="#e58139ff"] ;
255 -> 256 ;
257 [label="gini = 0.0\nsamples = 1\nvalue = [0, 1]", fillcolor="#399de5ff"] ;
255 -> 257 ;
258 [label="Parch <= 3.5\ngini = 0.3\nsamples = 66\nvalue = [20, 79]", fillcolor="#399de5be"] ;
0 -> 258 [labeldistance=2.5, labelangle=-45, headlabel="False"] ;
259 [label="Fare_log <= 2.7\ngini = 0.3\nsamples = 61\nvalue = [14, 78]", fillcolor="#399de5d1"] ;
258 -> 259 ;
260 [label="Age_is_null <= 0.5\ngini = 0.5\nsamples = 15\nvalue = [9, 17]", fillcolor="#399de578"] ;
259 -> 260 ;
261 [label="Parch <= 0.5\ngini = 0.5\nsamples = 13\nvalue = [8, 15]", fillcolor="#399de577"] ;
260 -> 261 ;
262 [label="Deck_e <= 0.5\ngini = 0.3\nsamples = 7\nvalue = [3, 11]", fillcolor="#399de5b9"] ;
261 -> 262 ;
263 [label="Age <= 38.0\ngini = 0.2\nsamples = 6\nvalue = [1, 11]", fillcolor="#399de5e8"] ;
262 -> 263 ;
264 [label="gini = 0.0\nsamples = 3\nvalue = [0, 7]", fillcolor="#399de5ff"] ;
263 -> 264 ;
265 [label="Fare <= 9.5\ngini = 0.3\nsamples = 3\nvalue = [1, 4]", fillcolor="#399de5bf"] ;
263 -> 265 ;
266 [label="gini = 0.0\nsamples = 1\nvalue = [1, 0]", fillcolor="#e58139ff"] ;
265 -> 266 ;
267 [label="gini = 0.0\nsamples = 2\nvalue = [0, 4]", fillcolor="#399de5ff"] ;
265 -> 267 ;
268 [label="gini = 0.0\nsamples = 1\nvalue = [2, 0]", fillcolor="#e58139ff"] ;
262 -> 268 ;
269 [label="Fare_log_round <= 2.5\ngini = 0.5\nsamples = 6\nvalue = [5, 4]", fillcolor="#e5813933"] ;
261 -> 269 ;
270 [label="Fare_log <= 2.4\ngini = 0.4\nsamples = 3\nvalue = [1, 3]", fillcolor="#399de5aa"] ;
269 -> 270 ;
271 [label="gini = 0.0\nsamples = 1\nvalue = [0, 2]", fillcolor="#399de5ff"] ;
270 -> 271 ;
272 [label="Parch <= 1.5\ngini = 0.5\nsamples = 2\nvalue = [1, 1]", fillcolor="#e5813900"] ;
270 -> 272 ;
273 [label="gini = 0.0\nsamples = 1\nvalue = [1, 0]", fillcolor="#e58139ff"] ;
272 -> 273 ;
274 [label="gini = 0.0\nsamples = 1\nvalue = [0, 1]", fillcolor="#399de5ff"] ;
272 -> 274 ;
275 [label="Embarked_C <= 0.5\ngini = 0.3\nsamples = 3\nvalue = [4, 1]", fillcolor="#e58139bf"] ;
269 -> 275 ;
276 [label="Fare <= 13.4\ngini = 0.4\nsamples = 2\nvalue = [2, 1]", fillcolor="#e581397f"] ;
275 -> 276 ;
277 [label="gini = 0.0\nsamples = 1\nvalue = [0, 1]", fillcolor="#399de5ff"] ;
276 -> 277 ;
278 [label="gini = 0.0\nsamples = 1\nvalue = [2, 0]", fillcolor="#e58139ff"] ;
276 -> 278 ;
279 [label="gini = 0.0\nsamples = 1\nvalue = [2, 0]", fillcolor="#e58139ff"] ;
275 -> 279 ;
280 [label="Fare_log <= 2.4\ngini = 0.4\nsamples = 2\nvalue = [1, 2]", fillcolor="#399de57f"] ;
260 -> 280 ;
281 [label="gini = 0.0\nsamples = 1\nvalue = [0, 2]", fillcolor="#399de5ff"] ;
280 -> 281 ;
282 [label="gini = 0.0\nsamples = 1\nvalue = [1, 0]", fillcolor="#e58139ff"] ;
280 -> 282 ;
283 [label="Parch <= 1.5\ngini = 0.1\nsamples = 46\nvalue = [5, 61]", fillcolor="#399de5ea"] ;
259 -> 283 ;
284 [label="Age <= 27.0\ngini = 0.1\nsamples = 39\nvalue = [3, 53]", fillcolor="#399de5f1"] ;
283 -> 284 ;
285 [label="Name_spaces <= 4.5\ngini = 0.3\nsamples = 7\nvalue = [2, 8]", fillcolor="#399de5bf"] ;
284 -> 285 ;
286 [label="Embarked_C <= 0.5\ngini = 0.4\nsamples = 5\nvalue = [2, 4]", fillcolor="#399de57f"] ;
285 -> 286 ;
287 [label="Age <= 18.5\ngini = 0.5\nsamples = 4\nvalue = [2, 3]", fillcolor="#399de555"] ;
286 -> 287 ;
288 [label="gini = 0.0\nsamples = 1\nvalue = [1, 0]", fillcolor="#e58139ff"] ;
287 -> 288 ;
289 [label="Parch <= 0.5\ngini = 0.4\nsamples = 3\nvalue = [1, 3]", fillcolor="#399de5aa"] ;
287 -> 289 ;
290 [label="gini = 0.0\nsamples = 2\nvalue = [0, 3]", fillcolor="#399de5ff"] ;
289 -> 290 ;
291 [label="gini = 0.0\nsamples = 1\nvalue = [1, 0]", fillcolor="#e58139ff"] ;
289 -> 291 ;
292 [label="gini = 0.0\nsamples = 1\nvalue = [0, 1]", fillcolor="#399de5ff"] ;
286 -> 292 ;
293 [label="gini = 0.0\nsamples = 2\nvalue = [0, 4]", fillcolor="#399de5ff"] ;
285 -> 293 ;
294 [label="Embarked_C <= 0.5\ngini = 0.0\nsamples = 32\nvalue = [1, 45]", fillcolor="#399de5f9"] ;
284 -> 294 ;
295 [label="Age_is_null <= 0.5\ngini = 0.1\nsamples = 26\nvalue = [1, 37]", fillcolor="#399de5f8"] ;
294 -> 295 ;
296 [label="Parch <= 0.5\ngini = 0.1\nsamples = 20\nvalue = [1, 31]", fillcolor="#399de5f7"] ;
295 -> 296 ;
297 [label="Fare <= 21.0\ngini = 0.1\nsamples = 9\nvalue = [1, 15]", fillcolor="#399de5ee"] ;
296 -> 297 ;
298 [label="gini = 0.0\nsamples = 2\nvalue = [0, 5]", fillcolor="#399de5ff"] ;
297 -> 298 ;
299 [label="Fare_log_round <= 3.5\ngini = 0.2\nsamples = 7\nvalue = [1, 10]", fillcolor="#399de5e6"] ;
297 -> 299 ;
300 [label="Name_spaces <= 5.5\ngini = 0.3\nsamples = 3\nvalue = [1, 5]", fillcolor="#399de5cc"] ;
299 -> 300 ;
301 [label="Age <= 36.5\ngini = 0.4\nsamples = 2\nvalue = [1, 3]", fillcolor="#399de5aa"] ;
300 -> 301 ;
302 [label="gini = 0.0\nsamples = 1\nvalue = [0, 3]", fillcolor="#399de5ff"] ;
301 -> 302 ;
303 [label="gini = 0.0\nsamples = 1\nvalue = [1, 0]", fillcolor="#e58139ff"] ;
301 -> 303 ;
304 [label="gini = 0.0\nsamples = 1\nvalue = [0, 2]", fillcolor="#399de5ff"] ;
300 -> 304 ;
305 [label="gini = 0.0\nsamples = 4\nvalue = [0, 5]", fillcolor="#399de5ff"] ;
299 -> 305 ;
306 [label="gini = 0.0\nsamples = 11\nvalue = [0, 16]", fillcolor="#399de5ff"] ;
296 -> 306 ;
307 [label="gini = 0.0\nsamples = 6\nvalue = [0, 6]", fillcolor="#399de5ff"] ;
295 -> 307 ;
308 [label="gini = 0.0\nsamples = 6\nvalue = [0, 8]", fillcolor="#399de5ff"] ;
294 -> 308 ;
309 [label="Fare <= 89.7\ngini = 0.3\nsamples = 7\nvalue = [2, 8]", fillcolor="#399de5bf"] ;
283 -> 309 ;
310 [label="Fare <= 19.7\ngini = 0.2\nsamples = 6\nvalue = [1, 8]", fillcolor="#399de5df"] ;
309 -> 310 ;
311 [label="gini = 0.0\nsamples = 3\nvalue = [0, 5]", fillcolor="#399de5ff"] ;
310 -> 311 ;
312 [label="Fare_log <= 3.1\ngini = 0.4\nsamples = 3\nvalue = [1, 3]", fillcolor="#399de5aa"] ;
310 -> 312 ;
313 [label="gini = 0.0\nsamples = 1\nvalue = [1, 0]", fillcolor="#e58139ff"] ;
312 -> 313 ;
314 [label="gini = 0.0\nsamples = 2\nvalue = [0, 3]", fillcolor="#399de5ff"] ;
312 -> 314 ;
315 [label="gini = 0.0\nsamples = 1\nvalue = [1, 0]", fillcolor="#e58139ff"] ;
309 -> 315 ;
316 [label="Fare_log <= 3.5\ngini = 0.2\nsamples = 5\nvalue = [6, 1]", fillcolor="#e58139d4"] ;
258 -> 316 ;
317 [label="gini = 0.0\nsamples = 2\nvalue = [3, 0]", fillcolor="#e58139ff"] ;
316 -> 317 ;
318 [label="Fare <= 35.5\ngini = 0.4\nsamples = 3\nvalue = [3, 1]", fillcolor="#e58139aa"] ;
316 -> 318 ;
319 [label="gini = 0.0\nsamples = 1\nvalue = [0, 1]", fillcolor="#399de5ff"] ;
318 -> 319 ;
320 [label="gini = 0.0\nsamples = 2\nvalue = [3, 0]", fillcolor="#e58139ff"] ;
318 -> 320 ;
}